<?xml version="1.0"?>
<opencv_storage>
<stage3>
  <maxWeakCount>5</maxWeakCount>
  <stageThreshold>-1.1386673450469971e+00</stageThreshold>
  <weakClassifiers>
    <_>
      <internalNodes>
        0 -1 160432 -1.9428366795182228e-03</internalNodes>
      <leafValues>
        -9.3495935201644897e-01 1.4893616735935211e-01</leafValues></_>
    <_>
      <internalNodes>
        0 -1 21742 -1.0317947715520859e-02</internalNodes>
      <leafValues>
        8.0385977029800415e-01 -4.6980392932891846e-01</leafValues></_>
    <_>
      <internalNodes>
        0 -1 150141 2.1441027638502419e-04</internalNodes>
      <leafValues>
        -9.2862385511398315e-01 3.6069062352180481e-01</leafValues></_>
    <_>
      <internalNodes>
        0 -1 135866 4.8075076192617416e-03</internalNodes>
      <leafValues>
        -4.5385488867759705e-01 8.0973213911056519e-01</leafValues></_>
    <_>
      <internalNodes>
        0 -1 162129 -1.7023216933012009e-03</internalNodes>
      <leafValues>
        -1. 3.5926026105880737e-01</leafValues></_></weakClassifiers></stage3>
</opencv_storage>
